digraph Tree {
node [shape=box] ;
0 [label="X[1] <= 0.5\ngini = 0.4741\nsamples = 712\nvalue = [437, 275]"] ;
1 [label="X[0] <= 2.5\ngini = 0.3839\nsamples = 247\nvalue = [64, 183]"] ;
0 -> 1 [labeldistance=2.5, labelangle=45, headlabel="True"] ;
2 [label="X[2] <= 2.5\ngini = 0.1155\nsamples = 130\nvalue = [8, 122]"] ;
1 -> 2 ;
3 [label="X[0] <= 1.5\ngini = 0.5\nsamples = 2\nvalue = [1, 1]"] ;
2 -> 3 ;
4 [label="gini = 0.0\nsamples = 1\nvalue = [1, 0]"] ;
3 -> 4 ;
5 [label="gini = 0.0\nsamples = 1\nvalue = [0, 1]"] ;
3 -> 5 ;
6 [label="X[3] <= 28.8563\ngini = 0.1034\nsamples = 128\nvalue = [7, 121]"] ;
2 -> 6 ;
7 [label="X[3] <= 28.2313\ngini = 0.2076\nsamples = 51\nvalue = [6, 45]"] ;
6 -> 7 ;
8 [label="X[2] <= 56.0\ngini = 0.18\nsamples = 50\nvalue = [5, 45]"] ;
7 -> 8 ;
9 [label="X[2] <= 37.0\ngini = 0.1528\nsamples = 48\nvalue = [4, 44]"] ;
8 -> 9 ;
10 [label="X[2] <= 27.5\ngini = 0.1023\nsamples = 37\nvalue = [2, 35]"] ;
9 -> 10 ;
11 [label="X[2] <= 22.5\ngini = 0.1884\nsamples = 19\nvalue = [2, 17]"] ;
10 -> 11 ;
12 [label="gini = 0.0\nsamples = 9\nvalue = [0, 9]"] ;
11 -> 12 ;
13 [label="X[3] <= 23.5\ngini = 0.32\nsamples = 10\nvalue = [2, 8]"] ;
11 -> 13 ;
14 [label="gini = 0.4082\nsamples = 7\nvalue = [2, 5]"] ;
13 -> 14 ;
15 [label="gini = 0.0\nsamples = 3\nvalue = [0, 3]"] ;
13 -> 15 ;
16 [label="gini = 0.0\nsamples = 18\nvalue = [0, 18]"] ;
10 -> 16 ;
17 [label="X[2] <= 39.0\ngini = 0.2975\nsamples = 11\nvalue = [2, 9]"] ;
9 -> 17 ;
18 [label="gini = 0.0\nsamples = 1\nvalue = [1, 0]"] ;
17 -> 18 ;
19 [label="X[4] <= 0.5\ngini = 0.18\nsamples = 10\nvalue = [1, 9]"] ;
17 -> 19 ;
20 [label="gini = 0.0\nsamples = 8\nvalue = [0, 8]"] ;
19 -> 20 ;
21 [label="X[2] <= 49.0\ngini = 0.5\nsamples = 2\nvalue = [1, 1]"] ;
19 -> 21 ;
22 [label="gini = 0.0\nsamples = 1\nvalue = [1, 0]"] ;
21 -> 22 ;
23 [label="gini = 0.0\nsamples = 1\nvalue = [0, 1]"] ;
21 -> 23 ;
24 [label="X[3] <= 18.525\ngini = 0.5\nsamples = 2\nvalue = [1, 1]"] ;
8 -> 24 ;
25 [label="gini = 0.0\nsamples = 1\nvalue = [1, 0]"] ;
24 -> 25 ;
26 [label="gini = 0.0\nsamples = 1\nvalue = [0, 1]"] ;
24 -> 26 ;
27 [label="gini = 0.0\nsamples = 1\nvalue = [1, 0]"] ;
7 -> 27 ;
28 [label="X[4] <= 2.5\ngini = 0.0256\nsamples = 77\nvalue = [1, 76]"] ;
6 -> 28 ;
29 [label="gini = 0.0\nsamples = 67\nvalue = [0, 67]"] ;
28 -> 29 ;
30 [label="X[2] <= 24.5\ngini = 0.18\nsamples = 10\nvalue = [1, 9]"] ;
28 -> 30 ;
31 [label="gini = 0.0\nsamples = 7\nvalue = [0, 7]"] ;
30 -> 31 ;
32 [label="X[3] <= 135.775\ngini = 0.4444\nsamples = 3\nvalue = [1, 2]"] ;
30 -> 32 ;
33 [label="gini = 0.0\nsamples = 2\nvalue = [0, 2]"] ;
32 -> 33 ;
34 [label="gini = 0.0\nsamples = 1\nvalue = [1, 0]"] ;
32 -> 34 ;
35 [label="X[4] <= 3.5\ngini = 0.4991\nsamples = 117\nvalue = [56, 61]"] ;
1 -> 35 ;
36 [label="X[2] <= 30.25\ngini = 0.4726\nsamples = 94\nvalue = [36, 58]"] ;
35 -> 36 ;
37 [label="X[3] <= 7.9021\ngini = 0.4444\nsamples = 81\nvalue = [27, 54]"] ;
36 -> 37 ;
38 [label="X[4] <= 1.5\ngini = 0.3047\nsamples = 32\nvalue = [6, 26]"] ;
37 -> 38 ;
39 [label="X[3] <= 6.9875\ngini = 0.2706\nsamples = 31\nvalue = [5, 26]"] ;
38 -> 39 ;
40 [label="gini = 0.0\nsamples = 1\nvalue = [1, 0]"] ;
39 -> 40 ;
41 [label="X[2] <= 14.5\ngini = 0.2311\nsamples = 30\nvalue = [4, 26]"] ;
39 -> 41 ;
42 [label="X[3] <= 7.5417\ngini = 0.5\nsamples = 2\nvalue = [1, 1]"] ;
41 -> 42 ;
43 [label="gini = 0.0\nsamples = 1\nvalue = [0, 1]"] ;
42 -> 43 ;
44 [label="gini = 0.0\nsamples = 1\nvalue = [1, 0]"] ;
42 -> 44 ;
45 [label="X[2] <= 24.0\ngini = 0.1913\nsamples = 28\nvalue = [3, 25]"] ;
41 -> 45 ;
46 [label="gini = 0.0\nsamples = 10\nvalue = [0, 10]"] ;
45 -> 46 ;
47 [label="X[2] <= 25.5\ngini = 0.2778\nsamples = 18\nvalue = [3, 15]"] ;
45 -> 47 ;
48 [label="gini = 0.0\nsamples = 1\nvalue = [1, 0]"] ;
47 -> 48 ;
49 [label="gini = 0.2076\nsamples = 17\nvalue = [2, 15]"] ;
47 -> 49 ;
50 [label="gini = 0.0\nsamples = 1\nvalue = [1, 0]"] ;
38 -> 50 ;
51 [label="X[3] <= 10.825\ngini = 0.4898\nsamples = 49\nvalue = [21, 28]"] ;
37 -> 51 ;
52 [label="X[2] <= 19.5\ngini = 0.3367\nsamples = 14\nvalue = [11, 3]"] ;
51 -> 52 ;
53 [label="X[3] <= 9.9063\ngini = 0.4444\nsamples = 3\nvalue = [1, 2]"] ;
52 -> 53 ;
54 [label="gini = 0.0\nsamples = 2\nvalue = [0, 2]"] ;
53 -> 54 ;
55 [label="gini = 0.0\nsamples = 1\nvalue = [1, 0]"] ;
53 -> 55 ;
56 [label="X[3] <= 7.9875\ngini = 0.1653\nsamples = 11\nvalue = [10, 1]"] ;
52 -> 56 ;
57 [label="X[2] <= 24.5\ngini = 0.5\nsamples = 2\nvalue = [1, 1]"] ;
56 -> 57 ;
58 [label="gini = 0.0\nsamples = 1\nvalue = [1, 0]"] ;
57 -> 58 ;
59 [label="gini = 0.0\nsamples = 1\nvalue = [0, 1]"] ;
57 -> 59 ;
60 [label="gini = 0.0\nsamples = 9\nvalue = [9, 0]"] ;
56 -> 60 ;
61 [label="X[2] <= 7.0\ngini = 0.4082\nsamples = 35\nvalue = [10, 25]"] ;
51 -> 61 ;
62 [label="gini = 0.0\nsamples = 8\nvalue = [0, 8]"] ;
61 -> 62 ;
63 [label="X[2] <= 12.0\ngini = 0.4664\nsamples = 27\nvalue = [10, 17]"] ;
61 -> 63 ;
64 [label="gini = 0.0\nsamples = 2\nvalue = [2, 0]"] ;
63 -> 64 ;
65 [label="X[3] <= 13.4375\ngini = 0.4352\nsamples = 25\nvalue = [8, 17]"] ;
63 -> 65 ;
66 [label="gini = 0.0\nsamples = 4\nvalue = [0, 4]"] ;
65 -> 66 ;
67 [label="X[3] <= 15.3729\ngini = 0.4717\nsamples = 21\nvalue = [8, 13]"] ;
65 -> 67 ;
68 [label="gini = 0.4082\nsamples = 7\nvalue = [5, 2]"] ;
67 -> 68 ;
69 [label="gini = 0.3367\nsamples = 14\nvalue = [3, 11]"] ;
67 -> 69 ;
70 [label="X[3] <= 20.3687\ngini = 0.426\nsamples = 13\nvalue = [9, 4]"] ;
36 -> 70 ;
71 [label="X[2] <= 55.0\ngini = 0.375\nsamples = 12\nvalue = [9, 3]"] ;
70 -> 71 ;
72 [label="X[2] <= 36.5\ngini = 0.2975\nsamples = 11\nvalue = [9, 2]"] ;
71 -> 72 ;
73 [label="X[2] <= 34.0\ngini = 0.4444\nsamples = 6\nvalue = [4, 2]"] ;
72 -> 73 ;
74 [label="X[4] <= 0.5\ngini = 0.32\nsamples = 5\nvalue = [4, 1]"] ;
73 -> 74 ;
75 [label="X[3] <= 8.2688\ngini = 0.4444\nsamples = 3\nvalue = [2, 1]"] ;
74 -> 75 ;
76 [label="gini = 0.0\nsamples = 2\nvalue = [2, 0]"] ;
75 -> 76 ;
77 [label="gini = 0.0\nsamples = 1\nvalue = [0, 1]"] ;
75 -> 77 ;
78 [label="gini = 0.0\nsamples = 2\nvalue = [2, 0]"] ;
74 -> 78 ;
79 [label="gini = 0.0\nsamples = 1\nvalue = [0, 1]"] ;
73 -> 79 ;
80 [label="gini = 0.0\nsamples = 5\nvalue = [5, 0]"] ;
72 -> 80 ;
81 [label="gini = 0.0\nsamples = 1\nvalue = [0, 1]"] ;
71 -> 81 ;
82 [label="gini = 0.0\nsamples = 1\nvalue = [0, 1]"] ;
70 -> 82 ;
83 [label="X[3] <= 14.5\ngini = 0.2268\nsamples = 23\nvalue = [20, 3]"] ;
35 -> 83 ;
84 [label="gini = 0.0\nsamples = 1\nvalue = [0, 1]"] ;
83 -> 84 ;
85 [label="X[3] <= 31.3312\ngini = 0.1653\nsamples = 22\nvalue = [20, 2]"] ;
83 -> 85 ;
86 [label="gini = 0.0\nsamples = 14\nvalue = [14, 0]"] ;
85 -> 86 ;
87 [label="X[3] <= 32.8812\ngini = 0.375\nsamples = 8\nvalue = [6, 2]"] ;
85 -> 87 ;
88 [label="gini = 0.0\nsamples = 2\nvalue = [0, 2]"] ;
87 -> 88 ;
89 [label="gini = 0.0\nsamples = 6\nvalue = [6, 0]"] ;
87 -> 89 ;
90 [label="X[2] <= 6.5\ngini = 0.3174\nsamples = 465\nvalue = [373, 92]"] ;
0 -> 90 [labeldistance=2.5, labelangle=-45, headlabel="False"] ;
91 [label="X[4] <= 3.5\ngini = 0.42\nsamples = 20\nvalue = [6, 14]"] ;
90 -> 91 ;
92 [label="gini = 0.0\nsamples = 13\nvalue = [0, 13]"] ;
91 -> 92 ;
93 [label="X[2] <= 2.5\ngini = 0.2449\nsamples = 7\nvalue = [6, 1]"] ;
91 -> 93 ;
94 [label="gini = 0.0\nsamples = 5\nvalue = [5, 0]"] ;
93 -> 94 ;
95 [label="X[2] <= 3.5\ngini = 0.5\nsamples = 2\nvalue = [1, 1]"] ;
93 -> 95 ;
96 [label="gini = 0.0\nsamples = 1\nvalue = [0, 1]"] ;
95 -> 96 ;
97 [label="gini = 0.0\nsamples = 1\nvalue = [1, 0]"] ;
95 -> 97 ;
98 [label="X[0] <= 1.5\ngini = 0.2891\nsamples = 445\nvalue = [367, 78]"] ;
90 -> 98 ;
99 [label="X[3] <= 26.1437\ngini = 0.4669\nsamples = 105\nvalue = [66, 39]"] ;
98 -> 99 ;
100 [label="gini = 0.0\nsamples = 9\nvalue = [9, 0]"] ;
99 -> 100 ;
101 [label="X[3] <= 26.4688\ngini = 0.4824\nsamples = 96\nvalue = [57, 39]"] ;
99 -> 101 ;
102 [label="gini = 0.0\nsamples = 4\nvalue = [0, 4]"] ;
101 -> 102 ;
103 [label="X[2] <= 28.5\ngini = 0.4714\nsamples = 92\nvalue = [57, 35]"] ;
101 -> 103 ;
104 [label="X[3] <= 77.0083\ngini = 0.4875\nsamples = 19\nvalue = [8, 11]"] ;
103 -> 104 ;
105 [label="X[2] <= 21.0\ngini = 0.1975\nsamples = 9\nvalue = [1, 8]"] ;
104 -> 105 ;
106 [label="gini = 0.0\nsamples = 1\nvalue = [1, 0]"] ;
105 -> 106 ;
107 [label="gini = 0.0\nsamples = 8\nvalue = [0, 8]"] ;
105 -> 107 ;
108 [label="X[2] <= 17.5\ngini = 0.42\nsamples = 10\nvalue = [7, 3]"] ;
104 -> 108 ;
109 [label="gini = 0.0\nsamples = 2\nvalue = [0, 2]"] ;
108 -> 109 ;
110 [label="X[2] <= 24.5\ngini = 0.2188\nsamples = 8\nvalue = [7, 1]"] ;
108 -> 110 ;
111 [label="gini = 0.0\nsamples = 5\nvalue = [5, 0]"] ;
110 -> 111 ;
112 [label="X[2] <= 26.0\ngini = 0.4444\nsamples = 3\nvalue = [2, 1]"] ;
110 -> 112 ;
113 [label="gini = 0.0\nsamples = 1\nvalue = [0, 1]"] ;
112 -> 113 ;
114 [label="gini = 0.0\nsamples = 2\nvalue = [2, 0]"] ;
112 -> 114 ;
115 [label="X[2] <= 53.0\ngini = 0.4414\nsamples = 73\nvalue = [49, 24]"] ;
103 -> 115 ;
116 [label="X[3] <= 27.1354\ngini = 0.4688\nsamples = 56\nvalue = [35, 21]"] ;
115 -> 116 ;
117 [label="gini = 0.0\nsamples = 4\nvalue = [0, 4]"] ;
116 -> 117 ;
118 [label="X[2] <= 47.5\ngini = 0.4401\nsamples = 52\nvalue = [35, 17]"] ;
116 -> 118 ;
119 [label="X[2] <= 43.0\ngini = 0.3926\nsamples = 41\nvalue = [30, 11]"] ;
118 -> 119 ;
120 [label="gini = 0.4512\nsamples = 32\nvalue = [21, 11]"] ;
119 -> 120 ;
121 [label="gini = 0.0\nsamples = 9\nvalue = [9, 0]"] ;
119 -> 121 ;
122 [label="X[2] <= 49.5\ngini = 0.4959\nsamples = 11\nvalue = [5, 6]"] ;
118 -> 122 ;
123 [label="gini = 0.32\nsamples = 5\nvalue = [1, 4]"] ;
122 -> 123 ;
124 [label="gini = 0.4444\nsamples = 6\nvalue = [4, 2]"] ;
122 -> 124 ;
125 [label="X[2] <= 75.5\ngini = 0.2907\nsamples = 17\nvalue = [14, 3]"] ;
115 -> 125 ;
126 [label="X[3] <= 34.5\ngini = 0.2188\nsamples = 16\nvalue = [14, 2]"] ;
125 -> 126 ;
127 [label="gini = 0.0\nsamples = 9\nvalue = [9, 0]"] ;
126 -> 127 ;
128 [label="X[3] <= 42.5021\ngini = 0.4082\nsamples = 7\nvalue = [5, 2]"] ;
126 -> 128 ;
129 [label="gini = 0.0\nsamples = 1\nvalue = [0, 1]"] ;
128 -> 129 ;
130 [label="gini = 0.2778\nsamples = 6\nvalue = [5, 1]"] ;
128 -> 130 ;
131 [label="gini = 0.0\nsamples = 1\nvalue = [0, 1]"] ;
125 -> 131 ;
132 [label="X[2] <= 32.25\ngini = 0.2031\nsamples = 340\nvalue = [301, 39]"] ;
98 -> 132 ;
133 [label="X[2] <= 30.5\ngini = 0.2366\nsamples = 248\nvalue = [214, 34]"] ;
132 -> 133 ;
134 [label="X[4] <= 2.5\ngini = 0.2146\nsamples = 229\nvalue = [201, 28]"] ;
133 -> 134 ;
135 [label="X[2] <= 10.0\ngini = 0.2274\nsamples = 214\nvalue = [186, 28]"] ;
134 -> 135 ;
136 [label="gini = 0.0\nsamples = 1\nvalue = [0, 1]"] ;
135 -> 136 ;
137 [label="X[4] <= 1.5\ngini = 0.2214\nsamples = 213\nvalue = [186, 27]"] ;
135 -> 137 ;
138 [label="X[3] <= 44.7479\ngini = 0.2044\nsamples = 199\nvalue = [176, 23]"] ;
137 -> 138 ;
139 [label="X[3] <= 9.6729\ngini = 0.1931\nsamples = 194\nvalue = [173, 21]"] ;
138 -> 139 ;
140 [label="gini = 0.2175\nsamples = 145\nvalue = [127, 18]"] ;
139 -> 140 ;
141 [label="gini = 0.115\nsamples = 49\nvalue = [46, 3]"] ;
139 -> 141 ;
142 [label="X[2] <= 23.5\ngini = 0.48\nsamples = 5\nvalue = [3, 2]"] ;
138 -> 142 ;
143 [label="gini = 0.0\nsamples = 2\nvalue = [2, 0]"] ;
142 -> 143 ;
144 [label="gini = 0.4444\nsamples = 3\nvalue = [1, 2]"] ;
142 -> 144 ;
145 [label="X[2] <= 28.8496\ngini = 0.4082\nsamples = 14\nvalue = [10, 4]"] ;
137 -> 145 ;
146 [label="X[3] <= 16.8708\ngini = 0.18\nsamples = 10\nvalue = [9, 1]"] ;
145 -> 146 ;
147 [label="gini = 0.375\nsamples = 4\nvalue = [3, 1]"] ;
146 -> 147 ;
148 [label="gini = 0.0\nsamples = 6\nvalue = [6, 0]"] ;
146 -> 148 ;
149 [label="X[3] <= 18.4625\ngini = 0.375\nsamples = 4\nvalue = [1, 3]"] ;
145 -> 149 ;
150 [label="gini = 0.0\nsamples = 2\nvalue = [0, 2]"] ;
149 -> 150 ;
151 [label="gini = 0.5\nsamples = 2\nvalue = [1, 1]"] ;
149 -> 151 ;
152 [label="gini = 0.0\nsamples = 15\nvalue = [15, 0]"] ;
134 -> 152 ;
153 [label="X[3] <= 7.8146\ngini = 0.4321\nsamples = 19\nvalue = [13, 6]"] ;
133 -> 153 ;
154 [label="gini = 0.0\nsamples = 3\nvalue = [3, 0]"] ;
153 -> 154 ;
155 [label="X[4] <= 1.5\ngini = 0.4688\nsamples = 16\nvalue = [10, 6]"] ;
153 -> 155 ;
156 [label="X[3] <= 20.925\ngini = 0.497\nsamples = 13\nvalue = [7, 6]"] ;
155 -> 156 ;
157 [label="X[3] <= 7.875\ngini = 0.4628\nsamples = 11\nvalue = [7, 4]"] ;
156 -> 157 ;
158 [label="gini = 0.0\nsamples = 1\nvalue = [0, 1]"] ;
157 -> 158 ;
159 [label="X[2] <= 31.5\ngini = 0.42\nsamples = 10\nvalue = [7, 3]"] ;
157 -> 159 ;
160 [label="gini = 0.4444\nsamples = 3\nvalue = [1, 2]"] ;
159 -> 160 ;
161 [label="gini = 0.2449\nsamples = 7\nvalue = [6, 1]"] ;
159 -> 161 ;
162 [label="gini = 0.0\nsamples = 2\nvalue = [0, 2]"] ;
156 -> 162 ;
163 [label="gini = 0.0\nsamples = 3\nvalue = [3, 0]"] ;
155 -> 163 ;
164 [label="X[3] <= 7.9104\ngini = 0.1028\nsamples = 92\nvalue = [87, 5]"] ;
132 -> 164 ;
165 [label="gini = 0.0\nsamples = 27\nvalue = [27, 0]"] ;
164 -> 165 ;
166 [label="X[3] <= 13.25\ngini = 0.142\nsamples = 65\nvalue = [60, 5]"] ;
164 -> 166 ;
167 [label="X[3] <= 7.9875\ngini = 0.2285\nsamples = 38\nvalue = [33, 5]"] ;
166 -> 167 ;
168 [label="X[4] <= 1.0\ngini = 0.4444\nsamples = 3\nvalue = [2, 1]"] ;
167 -> 168 ;
169 [label="gini = 0.5\nsamples = 2\nvalue = [1, 1]"] ;
168 -> 169 ;
170 [label="gini = 0.0\nsamples = 1\nvalue = [1, 0]"] ;
168 -> 170 ;
171 [label="X[2] <= 59.5\ngini = 0.2024\nsamples = 35\nvalue = [31, 4]"] ;
167 -> 171 ;
172 [label="X[3] <= 12.9375\ngini = 0.1699\nsamples = 32\nvalue = [29, 3]"] ;
171 -> 172 ;
173 [label="X[2] <= 44.5\ngini = 0.0868\nsamples = 22\nvalue = [21, 1]"] ;
172 -> 173 ;
174 [label="gini = 0.0\nsamples = 16\nvalue = [16, 0]"] ;
173 -> 174 ;
175 [label="gini = 0.2778\nsamples = 6\nvalue = [5, 1]"] ;
173 -> 175 ;
176 [label="X[2] <= 45.0\ngini = 0.32\nsamples = 10\nvalue = [8, 2]"] ;
172 -> 176 ;
177 [label="gini = 0.375\nsamples = 8\nvalue = [6, 2]"] ;
176 -> 177 ;
178 [label="gini = 0.0\nsamples = 2\nvalue = [2, 0]"] ;
176 -> 178 ;
179 [label="X[2] <= 64.0\ngini = 0.4444\nsamples = 3\nvalue = [2, 1]"] ;
171 -> 179 ;
180 [label="gini = 0.0\nsamples = 1\nvalue = [0, 1]"] ;
179 -> 180 ;
181 [label="gini = 0.0\nsamples = 2\nvalue = [2, 0]"] ;
179 -> 181 ;
182 [label="gini = 0.0\nsamples = 27\nvalue = [27, 0]"] ;
166 -> 182 ;
}