digraph Tree {
node [shape=box] ;
0 [label="Sex <= 0.5\ngini = 0.4715\nsamples = 712\nvalue = [441, 271]"] ;
1 [label="Pclass <= 2.5\ngini = 0.3855\nsamples = 257\nvalue = [67, 190]"] ;
0 -> 1 [labeldistance=2.5, labelangle=45, headlabel="True"] ;
2 [label="Age <= 3.0\ngini = 0.099\nsamples = 134\nvalue = [7, 127]"] ;
1 -> 2 ;
3 [label="Pclass <= 1.5\ngini = 0.5\nsamples = 2\nvalue = [1, 1]"] ;
2 -> 3 ;
4 [label="gini = 0.0\nsamples = 1\nvalue = [1, 0]"] ;
3 -> 4 ;
5 [label="gini = 0.0\nsamples = 1\nvalue = [0, 1]"] ;
3 -> 5 ;
6 [label="Fare <= 28.8563\ngini = 0.0868\nsamples = 132\nvalue = [6, 126]"] ;
2 -> 6 ;
7 [label="Fare <= 28.2313\ngini = 0.16\nsamples = 57\nvalue = [5, 52]"] ;
6 -> 7 ;
8 [label="gini = 0.1327\nsamples = 56\nvalue = [4, 52]"] ;
7 -> 8 ;
9 [label="gini = 0.0\nsamples = 1\nvalue = [1, 0]"] ;
7 -> 9 ;
10 [label="Family <= 2.5\ngini = 0.0263\nsamples = 75\nvalue = [1, 74]"] ;
6 -> 10 ;
11 [label="gini = 0.0\nsamples = 66\nvalue = [0, 66]"] ;
10 -> 11 ;
12 [label="gini = 0.1975\nsamples = 9\nvalue = [1, 8]"] ;
10 -> 12 ;
13 [label="Fare <= 22.9042\ngini = 0.4997\nsamples = 123\nvalue = [60, 63]"] ;
1 -> 13 ;
14 [label="Age <= 36.5\ngini = 0.48\nsamples = 100\nvalue = [40, 60]"] ;
13 -> 14 ;
15 [label="Fare <= 15.3729\ngini = 0.4674\nsamples = 94\nvalue = [35, 59]"] ;
14 -> 15 ;
16 [label="gini = 0.488\nsamples = 71\nvalue = [30, 41]"] ;
15 -> 16 ;
17 [label="gini = 0.3403\nsamples = 23\nvalue = [5, 18]"] ;
15 -> 17 ;
18 [label="Age <= 55.0\ngini = 0.2778\nsamples = 6\nvalue = [5, 1]"] ;
14 -> 18 ;
19 [label="gini = 0.0\nsamples = 5\nvalue = [5, 0]"] ;
18 -> 19 ;
20 [label="gini = 0.0\nsamples = 1\nvalue = [0, 1]"] ;
18 -> 20 ;
21 [label="Family <= 1.5\ngini = 0.2268\nsamples = 23\nvalue = [20, 3]"] ;
13 -> 21 ;
22 [label="gini = 0.0\nsamples = 1\nvalue = [0, 1]"] ;
21 -> 22 ;
23 [label="Age <= 5.5\ngini = 0.1653\nsamples = 22\nvalue = [20, 2]"] ;
21 -> 23 ;
24 [label="gini = 0.5\nsamples = 2\nvalue = [1, 1]"] ;
23 -> 24 ;
25 [label="gini = 0.095\nsamples = 20\nvalue = [19, 1]"] ;
23 -> 25 ;
26 [label="Age <= 6.5\ngini = 0.2927\nsamples = 455\nvalue = [374, 81]"] ;
0 -> 26 [labeldistance=2.5, labelangle=-45, headlabel="False"] ;
27 [label="Family <= 3.5\ngini = 0.48\nsamples = 20\nvalue = [8, 12]"] ;
26 -> 27 ;
28 [label="gini = 0.0\nsamples = 11\nvalue = [0, 11]"] ;
27 -> 28 ;
29 [label="Family <= 5.5\ngini = 0.1975\nsamples = 9\nvalue = [8, 1]"] ;
27 -> 29 ;
30 [label="gini = 0.0\nsamples = 6\nvalue = [6, 0]"] ;
29 -> 30 ;
31 [label="Fare <= 31.3312\ngini = 0.4444\nsamples = 3\nvalue = [2, 1]"] ;
29 -> 31 ;
32 [label="gini = 0.0\nsamples = 1\nvalue = [1, 0]"] ;
31 -> 32 ;
33 [label="gini = 0.5\nsamples = 2\nvalue = [1, 1]"] ;
31 -> 33 ;
34 [label="Pclass <= 1.5\ngini = 0.2669\nsamples = 435\nvalue = [366, 69]"] ;
26 -> 34 ;
35 [label="Age <= 53.0\ngini = 0.44\nsamples = 101\nvalue = [68, 33]"] ;
34 -> 35 ;
36 [label="Fare <= 30.5979\ngini = 0.4703\nsamples = 82\nvalue = [51, 31]"] ;
35 -> 36 ;
37 [label="gini = 0.4915\nsamples = 23\nvalue = [10, 13]"] ;
36 -> 37 ;
38 [label="gini = 0.424\nsamples = 59\nvalue = [41, 18]"] ;
36 -> 38 ;
39 [label="Age <= 75.5\ngini = 0.1884\nsamples = 19\nvalue = [17, 2]"] ;
35 -> 39 ;
40 [label="gini = 0.1049\nsamples = 18\nvalue = [17, 1]"] ;
39 -> 40 ;
41 [label="gini = 0.0\nsamples = 1\nvalue = [0, 1]"] ;
39 -> 41 ;
42 [label="Fare <= 51.6979\ngini = 0.1923\nsamples = 334\nvalue = [298, 36]"] ;
34 -> 42 ;
43 [label="Age <= 13.0\ngini = 0.18\nsamples = 320\nvalue = [288, 32]"] ;
42 -> 43 ;
44 [label="gini = 0.3967\nsamples = 11\nvalue = [8, 3]"] ;
43 -> 44 ;
45 [label="gini = 0.1701\nsamples = 309\nvalue = [280, 29]"] ;
43 -> 45 ;
46 [label="Fare <= 63.0229\ngini = 0.4082\nsamples = 14\nvalue = [10, 4]"] ;
42 -> 46 ;
47 [label="gini = 0.4444\nsamples = 6\nvalue = [2, 4]"] ;
46 -> 47 ;
48 [label="gini = 0.0\nsamples = 8\nvalue = [8, 0]"] ;
46 -> 48 ;
}